digraph Tree {
node [shape=box] ;
0 [label="term <= 0.5\ngini = 0.3054\nsamples = 73564\nvalue = [13835, 59729]"] ;
1 [label="total_rec_late_fee <= 0.005\ngini = 0.2659\nsamples = 58552\nvalue = [9244, 49308]"] ;
0 -> 1 [labeldistance=2.5, labelangle=45, headlabel="True"] ;
2 [label="grade <= 4.5\ngini = 0.2532\nsamples = 56922\nvalue = [8467, 48455]"] ;
1 -> 2 ;
3 [label="grade <= 3.5\ngini = 0.2257\nsamples = 47010\nvalue = [6097, 40913]"] ;
2 -> 3 ;
4 [label="dti <= 25.805\ngini = 0.262\nsamples = 34176\nvalue = [5298, 28878]"] ;
3 -> 4 ;
5 [label="grade <= 0.5\ngini = 0.2479\nsamples = 30937\nvalue = [4485, 26452]"] ;
4 -> 5 ;
6 [label="(...)"] ;
5 -> 6 ;
6507 [label="(...)"] ;
5 -> 6507 ;
12118 [label="grade <= 0.5\ngini = 0.376\nsamples = 3239\nvalue = [813, 2426]"] ;
4 -> 12118 ;
12119 [label="(...)"] ;
12118 -> 12119 ;
12946 [label="(...)"] ;
12118 -> 12946 ;
13843 [label="dti <= 16.295\ngini = 0.1168\nsamples = 12834\nvalue = [799, 12035]"] ;
3 -> 13843 ;
13844 [label="revol_util <= 31.95\ngini = 0.0929\nsamples = 8494\nvalue = [415, 8079]"] ;
13843 -> 13844 ;
13845 [label="(...)"] ;
13844 -> 13845 ;
14630 [label="(...)"] ;
13844 -> 14630 ;
15407 [label="emp_length_num <= 0.5\ngini = 0.1613\nsamples = 4340\nvalue = [384, 3956]"] ;
13843 -> 15407 ;
15408 [label="(...)"] ;
15407 -> 15408 ;
15495 [label="(...)"] ;
15407 -> 15495 ;
16618 [label="dti <= 23.715\ngini = 0.3639\nsamples = 9912\nvalue = [2370, 7542]"] ;
2 -> 16618 ;
16619 [label="dti <= 13.665\ngini = 0.3455\nsamples = 8215\nvalue = [1824, 6391]"] ;
16618 -> 16619 ;
16620 [label="home_ownership <= 2.5\ngini = 0.3135\nsamples = 3874\nvalue = [754, 3120]"] ;
16619 -> 16620 ;
16621 [label="(...)"] ;
16620 -> 16621 ;
17312 [label="(...)"] ;
16620 -> 17312 ;
18411 [label="emp_length_num <= 0.5\ngini = 0.3715\nsamples = 4341\nvalue = [1070, 3271]"] ;
16619 -> 18411 ;
18412 [label="(...)"] ;
18411 -> 18412 ;
18513 [label="(...)"] ;
18411 -> 18513 ;
20648 [label="home_ownership <= 1.5\ngini = 0.4364\nsamples = 1697\nvalue = [546, 1151]"] ;
16618 -> 20648 ;
20649 [label="dti <= 32.765\ngini = 0.3847\nsamples = 781\nvalue = [203, 578]"] ;
20648 -> 20649 ;
20650 [label="(...)"] ;
20649 -> 20650 ;
21037 [label="(...)"] ;
20649 -> 21037 ;
21064 [label="revol_util <= 32.25\ngini = 0.4685\nsamples = 916\nvalue = [343, 573]"] ;
20648 -> 21064 ;
21065 [label="(...)"] ;
21064 -> 21065 ;
21092 [label="(...)"] ;
21064 -> 21092 ;
21609 [label="dti <= 5.885\ngini = 0.4989\nsamples = 1630\nvalue = [777, 853]"] ;
1 -> 21609 ;
21610 [label="dti <= 2.255\ngini = 0.4407\nsamples = 244\nvalue = [80, 164]"] ;
21609 -> 21610 ;
21611 [label="dti <= 1.74\ngini = 0.4898\nsamples = 77\nvalue = [33, 44]"] ;
21610 -> 21611 ;
21612 [label="purpose <= 7.5\ngini = 0.4481\nsamples = 59\nvalue = [20, 39]"] ;
21611 -> 21612 ;
21613 [label="(...)"] ;
21612 -> 21613 ;
21632 [label="(...)"] ;
21612 -> 21632 ;
21645 [label="purpose <= 9.0\ngini = 0.4012\nsamples = 18\nvalue = [13, 5]"] ;
21611 -> 21645 ;
21646 [label="(...)"] ;
21645 -> 21646 ;
21659 [label="(...)"] ;
21645 -> 21659 ;
21660 [label="dti <= 2.695\ngini = 0.4045\nsamples = 167\nvalue = [47, 120]"] ;
21610 -> 21660 ;
21661 [label="gini = 0.0\nsamples = 17\nvalue = [0, 17]"] ;
21660 -> 21661 ;
21662 [label="dti <= 2.865\ngini = 0.4303\nsamples = 150\nvalue = [47, 103]"] ;
21660 -> 21662 ;
21663 [label="(...)"] ;
21662 -> 21663 ;
21668 [label="(...)"] ;
21662 -> 21668 ;
21745 [label="dti <= 25.685\ngini = 0.5\nsamples = 1386\nvalue = [697, 689]"] ;
21609 -> 21745 ;
21746 [label="emp_length_num <= 0.5\ngini = 0.4997\nsamples = 1293\nvalue = [630, 663]"] ;
21745 -> 21746 ;
21747 [label="revol_util <= 46.3\ngini = 0.3628\nsamples = 42\nvalue = [32, 10]"] ;
21746 -> 21747 ;
21748 [label="(...)"] ;
21747 -> 21748 ;
21757 [label="(...)"] ;
21747 -> 21757 ;
21758 [label="last_major_derog_none <= 0.5\ngini = 0.499\nsamples = 1251\nvalue = [598, 653]"] ;
21746 -> 21758 ;
21759 [label="(...)"] ;
21758 -> 21759 ;
21794 [label="(...)"] ;
21758 -> 21794 ;
22433 [label="sub_grade <= 18.5\ngini = 0.4028\nsamples = 93\nvalue = [67, 26]"] ;
21745 -> 22433 ;
22434 [label="dti <= 26.87\ngini = 0.4721\nsamples = 55\nvalue = [34, 21]"] ;
22433 -> 22434 ;
22435 [label="(...)"] ;
22434 -> 22435 ;
22440 [label="(...)"] ;
22434 -> 22440 ;
22461 [label="sub_grade <= 31.5\ngini = 0.2285\nsamples = 38\nvalue = [33, 5]"] ;
22433 -> 22461 ;
22462 [label="(...)"] ;
22461 -> 22462 ;
22471 [label="(...)"] ;
22461 -> 22471 ;
22472 [label="total_rec_late_fee <= 7.3523\ngini = 0.4246\nsamples = 15012\nvalue = [4591, 10421]"] ;
0 -> 22472 [labeldistance=2.5, labelangle=-45, headlabel="False"] ;
22473 [label="revol_util <= 56.45\ngini = 0.4141\nsamples = 14586\nvalue = [4271, 10315]"] ;
22472 -> 22473 ;
22474 [label="dti <= 21.015\ngini = 0.3679\nsamples = 6682\nvalue = [1624, 5058]"] ;
22473 -> 22474 ;
22475 [label="home_ownership <= 2.5\ngini = 0.3464\nsamples = 5186\nvalue = [1156, 4030]"] ;
22474 -> 22475 ;
22476 [label="grade <= 4.5\ngini = 0.3223\nsamples = 3595\nvalue = [726, 2869]"] ;
22475 -> 22476 ;
22477 [label="(...)"] ;
22476 -> 22477 ;
23568 [label="(...)"] ;
22476 -> 23568 ;
24117 [label="dti <= 6.295\ngini = 0.3944\nsamples = 1591\nvalue = [430, 1161]"] ;
22475 -> 24117 ;
24118 [label="(...)"] ;
24117 -> 24118 ;
24239 [label="(...)"] ;
24117 -> 24239 ;
24952 [label="emp_length_num <= 0.5\ngini = 0.4299\nsamples = 1496\nvalue = [468, 1028]"] ;
22474 -> 24952 ;
24953 [label="sub_grade <= 16.5\ngini = 0.4867\nsamples = 43\nvalue = [25, 18]"] ;
24952 -> 24953 ;
24954 [label="(...)"] ;
24953 -> 24954 ;
24967 [label="(...)"] ;
24953 -> 24967 ;
24982 [label="revol_util <= 6.5\ngini = 0.4239\nsamples = 1453\nvalue = [443, 1010]"] ;
24952 -> 24982 ;
24983 [label="(...)"] ;
24982 -> 24983 ;
24996 [label="(...)"] ;
24982 -> 24996 ;
25799 [label="dti <= 21.365\ngini = 0.4455\nsamples = 7904\nvalue = [2647, 5257]"] ;
22473 -> 25799 ;
25800 [label="emp_length_num <= 0.5\ngini = 0.4248\nsamples = 5384\nvalue = [1648, 3736]"] ;
25799 -> 25800 ;
25801 [label="sub_grade <= 28.5\ngini = 0.4998\nsamples = 108\nvalue = [55, 53]"] ;
25800 -> 25801 ;
25802 [label="(...)"] ;
25801 -> 25802 ;
25859 [label="(...)"] ;
25801 -> 25859 ;
25868 [label="home_ownership <= 2.5\ngini = 0.4215\nsamples = 5276\nvalue = [1593, 3683]"] ;
25800 -> 25868 ;
25869 [label="(...)"] ;
25868 -> 25869 ;
27808 [label="(...)"] ;
25868 -> 27808 ;
28873 [label="grade <= 2.5\ngini = 0.4785\nsamples = 2520\nvalue = [999, 1521]"] ;
25799 -> 28873 ;
28874 [label="home_ownership <= 2.0\ngini = 0.4975\nsamples = 654\nvalue = [304, 350]"] ;
28873 -> 28874 ;
28875 [label="(...)"] ;
28874 -> 28875 ;
29142 [label="(...)"] ;
28874 -> 29142 ;
29305 [label="grade <= 5.5\ngini = 0.4675\nsamples = 1866\nvalue = [695, 1171]"] ;
28873 -> 29305 ;
29306 [label="(...)"] ;
29305 -> 29306 ;
29973 [label="(...)"] ;
29305 -> 29973 ;
30374 [label="sub_grade <= 17.5\ngini = 0.3738\nsamples = 426\nvalue = [320, 106]"] ;
22472 -> 30374 ;
30375 [label="sub_grade <= 5.5\ngini = 0.4381\nsamples = 216\nvalue = [146, 70]"] ;
30374 -> 30375 ;
30376 [label="dti <= 13.455\ngini = 0.2649\nsamples = 70\nvalue = [59, 11]"] ;
30375 -> 30376 ;
30377 [label="dti <= 12.35\ngini = 0.3841\nsamples = 27\nvalue = [20, 7]"] ;
30376 -> 30377 ;
30378 [label="(...)"] ;
30377 -> 30378 ;
30395 [label="(...)"] ;
30377 -> 30395 ;
30396 [label="purpose <= 9.0\ngini = 0.1687\nsamples = 43\nvalue = [39, 4]"] ;
30376 -> 30396 ;
30397 [label="(...)"] ;
30396 -> 30397 ;
30406 [label="(...)"] ;
30396 -> 30406 ;
30407 [label="grade <= 4.5\ngini = 0.4816\nsamples = 146\nvalue = [87, 59]"] ;
30375 -> 30407 ;
30408 [label="dti <= 5.525\ngini = 0.4444\nsamples = 96\nvalue = [64, 32]"] ;
30407 -> 30408 ;
30409 [label="(...)"] ;
30408 -> 30409 ;
30410 [label="(...)"] ;
30408 -> 30410 ;
30457 [label="dti <= 11.745\ngini = 0.4968\nsamples = 50\nvalue = [23, 27]"] ;
30407 -> 30457 ;
30458 [label="(...)"] ;
30457 -> 30458 ;
30467 [label="(...)"] ;
30457 -> 30467 ;
30492 [label="revol_util <= 90.55\ngini = 0.2841\nsamples = 210\nvalue = [174, 36]"] ;
30374 -> 30492 ;
30493 [label="dti <= 6.72\ngini = 0.2333\nsamples = 178\nvalue = [154, 24]"] ;
30492 -> 30493 ;
30494 [label="total_rec_late_fee <= 33.917\ngini = 0.426\nsamples = 26\nvalue = [18, 8]"] ;
30493 -> 30494 ;
30495 [label="(...)"] ;
30494 -> 30495 ;
30506 [label="(...)"] ;
30494 -> 30506 ;
30507 [label="purpose <= 0.5\ngini = 0.1884\nsamples = 152\nvalue = [136, 16]"] ;
30493 -> 30507 ;
30508 [label="(...)"] ;
30507 -> 30508 ;
30511 [label="(...)"] ;
30507 -> 30511 ;
30556 [label="revol_util <= 91.0\ngini = 0.4688\nsamples = 32\nvalue = [20, 12]"] ;
30492 -> 30556 ;
30557 [label="gini = 0.0\nsamples = 3\nvalue = [0, 3]"] ;
30556 -> 30557 ;
30558 [label="purpose <= 1.5\ngini = 0.4281\nsamples = 29\nvalue = [20, 9]"] ;
30556 -> 30558 ;
30559 [label="(...)"] ;
30558 -> 30559 ;
30560 [label="(...)"] ;
30558 -> 30560 ;
}